100.0625
320.0
330.0
500.0
900.0
0.0
0.0
0.0
0.0
0.0
0.0
0.0
0.0
5.0
10.0
10.0
-20.0
-20.096250000000015
10.126249999999997
10.059999999999999
5.0
5.0
-5.0
-10.0
0.0
0.0
-10.119999999999997
-5.0
5.0
0.0
0.0
0.0
20.0
20.096250000000015
0.0
-0.06000000000000001
0.0
5.0
5.0
10.0
25.0
25.0
10.0
5.0
5.0
10.0
10.0
20.0
30.0
30.0
20.0
10.0
10.0
50.0
50.0
50.0
50.0
50.0
50.0
50.0
50.0
0.0
0.0
0.0
0.0
0.0
0.0
0.0
0.0
-50.0
-39.974999999999994
-30.0
-30.0
-30.0
-30.0
-39.9875
-50.0
-40.0
-20.0
0.0
5.0
5.0
0.0
-20.0
-40.0
-30.0
5.0
9.975000000000001
15.0
15.0
9.9875
5.0
-30.0
-30.0
0.0
15.0
20.0
20.0
15.0
0.0
-30.0
-30.0
5.0
15.0
20.0
20.0
15.0
5.0
-30.0
-30.0
0.0
10.0
15.0
15.0
10.0
0.0
-30.0
-40.0
-20.0
0.0
0.0
0.0
0.0
-20.0
-40.0
-50.0
-40.0
-30.0
-30.0
-30.0
-30.0
-40.0
-50.0
-20.0
-10.0
-10.0
-10.0
-10.0
-10.031249999999998
-10.0
-20.0
-10.0
5.0
0.0
0.0
0.0
0.0
5.0
-10.0
-10.0
10.0
10.0
10.0
10.0
10.0
10.0
-10.0
-10.0
0.0
10.031249999999998
10.0
10.0
10.0
0.0
-10.0
-10.0
5.0
5.0
10.0
10.0
5.0
5.0
-10.0
-10.0
0.0
5.0
10.0
10.0
5.0
0.0
-10.0
-10.0
0.0
0.0
0.0
0.0
0.0
0.0
-10.0
-20.0
-10.0
-10.0
-10.0
-10.0
-10.0
-10.0
-20.0
0.0
0.0
0.0
5.0
5.0
0.0
0.0
0.0
-5.0
0.0
0.0
0.0
0.0
0.0
0.0
-5.0
-5.0
0.0
0.0
0.0
0.0
0.0
0.0
-5.0
-5.0
0.0
0.0
0.0
0.0
0.0
0.0
-5.0
-5.0
0.0
0.0
0.0
0.0
0.0
0.0
-5.0
-5.0
0.0
0.0
0.0
0.0
0.0
0.0
-5.0
5.0
10.0
10.0
10.0
10.0
10.0
10.0
5.0
0.0
0.0
0.0
0.0
0.0
0.0
0.0
0.0
-20.0
-10.0
-10.0
-5.048749999999998
-5.0
-10.0
-10.0
-20.0
-10.0
0.0
5.0
0.0
0.0
0.0
0.0
-10.0
-10.0
5.0
5.0
5.0
5.0
5.0
0.0
-10.0
0.0
0.0
5.0
5.0
5.0
5.0
0.0
-5.0
-5.0
0.0
5.0
5.0
5.0
5.0
0.0
-4.957500000000001
-10.0
0.0
5.0
5.0
5.0
5.0
0.0
-10.0
-10.0
0.0
0.0
0.0
0.0
0.00625
0.0
-10.0
-20.0
-10.0
-10.0
-5.0
-5.0
-10.0
-10.0
-20.0
20.0
30.0
10.0
0.0
0.0
10.0
30.0
20.0
20.0
20.0
0.0
0.0
0.0
0.0
20.0
20.0
-10.0
-20.0
-20.0
-20.0
-20.0
-20.0
-20.0
-10.0
-20.0
-30.0
-30.0
-40.0
-40.0
-30.0
-30.0
-20.0
-30.0
-40.0
-40.0
-50.0
-50.0
-40.0
-40.0
-30.0
-30.0
-40.0
-40.0
-50.0
-50.0
-40.0
-40.0
-30.0
-30.0
-40.0
-40.0
-50.0
-50.0
-40.0
-40.0
-30.0
-30.0
-40.0
-40.0
-50.0
-50.0
-40.0
-40.0
-30.0
59.625
36.25
79.375
40.0
145.125
250.0
150.0
200.0
80.0
52.625
30.0
