100.78571428571433
319.74999999999966
330.35714285714334
500.0
900.0
0.0
0.0
0.0
0.0
0.0
0.0
0.0
0.0
5.055357142857142
10.0
10.028571428571421
-20.001785714285713
-19.947857142857167
9.989999999999998
10.07
4.95
5.0
-5.0
-10.0
0.0
0.0
-10.04
-5.0
5.0
0.0
0.0
0.0
19.973214285714302
20.02642857142858
0.0
-0.020000000000000004
0.0
5.0
5.0
10.0
24.996428571428574
25.0
10.0
5.0
5.0
10.0
10.0
19.998214285714287
30.0
30.0
20.0
10.0
10.0
50.0
50.0
50.0
50.0
50.0
50.0
50.0
50.0
0.0
0.0
0.0
0.0
0.0
0.0
0.0
0.0
-50.0
-40.00178571428572
-30.0
-30.0
-30.0
-30.0
-39.991071428571416
-50.0
-40.0
-20.0
0.0
5.0
5.0
0.0
-20.0
-40.0
-30.0
5.0
9.991071428571425
15.0
15.0
9.97857142857142
5.0
-29.996428571428574
-30.0
0.0
15.0
20.0
19.985714285714295
15.008928571428575
0.0
-30.0
-30.0
5.0
15.0
20.0
20.0
15.0
5.0
-30.0
-30.0
0.0
10.0
15.0
15.0
10.0
0.0
-30.0
-40.0
-20.0
0.0
0.0
0.0
0.0
-20.0
-40.0
-50.0
-40.0
-30.0
-30.0
-30.0
-30.0
-40.0
-50.0
-20.0
-10.0
-10.001785714285715
-10.0
-10.0
-9.98214285714285
-10.0
-20.0
-10.0
5.0
0.0
0.0
0.0
0.0
5.0
-10.0
-10.0
10.0
10.0
10.0
10.037500000000014
10.0
10.0
-10.0
-10.0
0.0
9.998214285714285
10.0
10.0
9.98571428571428
0.0
-10.0
-10.0
5.0
5.0
10.0
10.0
5.0
5.0
-10.0
-10.0
0.0
5.0
10.0
10.0
5.0
0.0
-10.0
-10.0
0.0
-0.0017857142857142857
0.0
0.0
0.0
0.0
-10.0
-20.0
-10.0
-10.0
-10.0
-10.0
-10.0
-10.0
-20.0
-0.02321428571428572
0.0
0.0
5.023214285714283
5.0
0.0
0.0
0.0
-5.0
0.0
0.0
0.0
0.0
0.0
0.0
-5.0
-5.0
0.0
0.0
0.0
0.0
0.0
0.0
-5.0
-5.0
0.0
0.0
0.0
0.0
0.0
0.0
-5.0
-5.0
0.0
0.0
0.0
0.0
0.0
0.0
-5.0
-5.0
0.0
0.0
0.0
0.0
0.0
0.0
-5.0
5.0
10.0
10.0
10.0
10.0
10.0
10.0
5.0
0.0
0.0
0.0
0.0
0.0
0.0
0.0
0.0
-20.0
-10.0
-10.0
-5.0332142857142825
-5.0
-10.0
-10.0
-20.0
-10.0
0.0
5.003571428571428
4.336808689942018E-19
0.0
0.0
0.0
-10.0
-10.0
5.0
5.003571428571428
5.0
5.0
5.0
0.0
-10.0
0.0
0.0
5.0
5.0
5.0
5.0
0.0
-5.0
-5.0
0.0
5.010714285714284
5.0
5.0
5.0
0.0
-4.99
-10.0
0.0
5.0
5.0
5.0
5.0
0.0
-10.0
-9.99642857142857
0.0
0.0
0.0
0.0
0.0
0.0
-10.0
-19.998214285714287
-10.0
-10.0
-5.0
-5.0
-10.0
-10.0
-20.0
20.0
30.0
10.023214285714294
0.0
-0.02321428571428572
10.0
30.0
20.0
20.0
20.0
0.0
0.0
0.0
0.0
20.0
20.0
-10.0
-20.0
-20.0
-20.0
-20.0
-20.0
-20.0
-10.0
-20.0
-30.0
-30.0
-40.0
-40.0
-30.0
-30.0
-20.0
-30.0
-40.0
-40.0
-50.0
-50.0
-40.0
-40.0
-30.0
-30.0
-40.0
-40.0
-50.0
-50.0
-40.0
-40.0
-30.0
-30.0
-40.0
-40.0
-50.0
-50.0
-40.0
-40.0
-30.0
-30.0
-40.0
-40.0
-50.0
-50.0
-40.0
-40.0
-30.0
49.96428571428568
36.96428571428568
77.67857142857139
40.0
147.57142857142867
252.3214285714284
150.0
200.0
80.0
39.0
25.0
