100.5
320.0
331.5
501.0
900.0
0.0
0.0
0.0
0.0
0.0
0.0
0.0
0.0
50.0
50.0
50.0
50.0
50.0
50.0
50.0
50.0
10.0
10.0
20.0
30.0
30.0
20.0
10.0
10.0
5.0
5.0
10.0
25.0
25.0
10.0
5.0
5.0
0.0
0.0
0.0
20.0
20.0
0.0
0.0
0.0
5.0
-5.0
-10.0
0.0
0.0
-10.0
-5.0
5.0
5.0
10.0
10.0
-20.0
-20.0
10.0
10.0
5.0
0.0
0.0
0.0
0.0
0.0
0.0
0.0
0.0
-50.0
-40.0
-30.0
-30.0
-30.0
-30.0
-40.0
-50.0
-40.0
-20.0
0.0
0.0
0.0
0.0
-20.0
-40.0
-30.0
0.0
10.0
15.0
15.0
10.0
0.0
-30.0
-30.0
5.0
15.0
20.0
20.0
15.0
5.0
-30.0
-30.0
0.0
15.0
20.0
20.0
15.0
0.0
-30.0
-30.0
5.0
10.0
15.0
15.0
10.0
5.0
-30.0
-40.0
-20.0
0.0
5.0
5.0
0.0
-20.0
-40.0
-50.0
-40.0
-30.0
-30.0
-30.0
-30.0
-40.0
-50.0
-20.0
-10.0
-10.0
-10.0
-10.0
-10.0
-10.0
-20.0
-10.0
0.0
0.0
0.0
0.0
0.0
0.0
-10.0
-10.0
0.0
5.0
10.0
10.0
5.0
0.0
-10.0
-10.0
5.0
5.0
10.0
10.0
5.0
5.0
-10.0
-10.0
0.0
10.0
10.0
10.0
10.0
0.0
-10.0
-10.0
10.0
10.0
10.0
10.0
10.0
10.0
-10.0
-10.0
5.0
0.0
0.0
0.0
0.0
5.0
-10.0
-20.0
-10.0
-10.0
-10.0
-10.0
-10.0
-10.0
-20.0
0.0
0.0
0.0
0.0
0.0
0.0
0.0
0.0
5.0
10.0
10.0
10.0
10.0
10.0
10.0
5.0
-5.0
0.0
0.0
0.0
0.0
0.0
0.0
-5.0
-5.0
0.0
0.0
0.0
0.0
0.0
0.0
-5.0
-5.0
0.0
0.0
0.0
0.0
0.0
0.0
-5.0
-5.0
0.0
0.0
0.0
0.0
0.0
0.0
-5.0
-5.0
0.0
0.0
0.0
0.0
0.0
0.0
-5.0
0.0
0.0
0.0
5.0
5.0
0.0
0.0
0.0
-20.0
-10.0
-10.0
-5.0
-5.0
-10.0
-10.0
-20.0
-10.0
0.0
0.0
0.0
0.0
0.0
0.0
-10.0
-10.0
0.0
5.0
5.0
5.0
5.0
0.0
-10.0
-5.0
0.0
5.0
5.0
5.0
5.0
0.0
-5.0
0.0
0.0
5.0
5.0
5.0
5.0
0.0
-5.0
-10.0
5.0
5.0
5.0
5.0
5.0
0.0
-10.0
-10.0
0.0
5.0
0.0
0.0
0.0
0.0
-10.0
-20.0
-10.0
-10.0
-5.0
-5.0
-10.0
-10.0
-20.0
-30.0
-40.0
-40.0
-50.0
-50.0
-40.0
-40.0
-30.0
-30.0
-40.0
-40.0
-50.0
-50.0
-40.0
-40.0
-30.0
-30.0
-40.0
-40.0
-50.0
-50.0
-40.0
-40.0
-30.0
-30.0
-40.0
-40.0
-50.0
-50.0
-40.0
-40.0
-30.0
-20.0
-30.0
-30.0
-40.0
-40.0
-30.0
-30.0
-20.0
-10.0
-20.0
-20.0
-20.0
-20.0
-20.0
-20.0
-10.0
20.0
20.0
0.0
0.0
0.0
0.0
20.0
20.0
20.0
30.0
10.0
0.0
0.0
10.0
30.0
20.0
50.0
40.0
80.0
40.0
150.0
250.0
150.0
200.0
80.0
40.0
30.0
